digraph Tree {
node [shape=box] ;
0 [label="X[3] <= 591724511232.0\nfriedman_mse = 2209.358\nsamples = 224\nvalue = 187.826"] ;
1 [label="X[2] <= 402035507200.0\nfriedman_mse = 1916.199\nsamples = 212\nvalue = 192.274"] ;
0 -> 1 [labeldistance=2.5, labelangle=45, headlabel="True"] ;
2 [label="X[0] <= 19.45\nfriedman_mse = 1992.727\nsamples = 33\nvalue = 226.0"] ;
1 -> 2 ;
3 [label="X[6] <= 106151500.0\nfriedman_mse = 1904.79\nsamples = 28\nvalue = 217.821"] ;
2 -> 3 ;
4 [label="friedman_mse = 1835.89\nsamples = 20\nvalue = 226.1"] ;
3 -> 4 ;
5 [label="friedman_mse = 1477.359\nsamples = 8\nvalue = 197.125"] ;
3 -> 5 ;
6 [label="friedman_mse = 12.96\nsamples = 5\nvalue = 271.8"] ;
2 -> 6 ;
7 [label="X[4] <= 459.9\nfriedman_mse = 1653.729\nsamples = 179\nvalue = 186.056"] ;
1 -> 7 ;
8 [label="X[2] <= 538886995968.0\nfriedman_mse = 898.774\nsamples = 149\nvalue = 178.732"] ;
7 -> 8 ;
9 [label="X[6] <= 136480000.0\nfriedman_mse = 515.722\nsamples = 93\nvalue = 173.903"] ;
8 -> 9 ;
10 [label="X[6] <= 136045000.0\nfriedman_mse = 649.66\nsamples = 40\nvalue = 180.2"] ;
9 -> 10 ;
11 [label="X[0] <= 6.9\nfriedman_mse = 455.474\nsamples = 38\nvalue = 178.0"] ;
10 -> 11 ;
12 [label="friedman_mse = 1161.667\nsamples = 12\nvalue = 188.0"] ;
11 -> 12 ;
13 [label="friedman_mse = 62.083\nsamples = 26\nvalue = 173.385"] ;
11 -> 13 ;
14 [label="friedman_mse = 2500.0\nsamples = 2\nvalue = 222.0"] ;
10 -> 14 ;
15 [label="X[6] <= 169404504.0\nfriedman_mse = 362.128\nsamples = 53\nvalue = 169.151"] ;
9 -> 15 ;
16 [label="X[6] <= 169318000.0\nfriedman_mse = 66.299\nsamples = 44\nvalue = 165.795"] ;
15 -> 16 ;
17 [label="friedman_mse = 15.801\nsamples = 42\nvalue = 167.357"] ;
16 -> 17 ;
18 [label="friedman_mse = 0.0\nsamples = 2\nvalue = 133.0"] ;
16 -> 18 ;
19 [label="friedman_mse = 1484.247\nsamples = 9\nvalue = 185.556"] ;
15 -> 19 ;
20 [label="X[5] <= 15991.55\nfriedman_mse = 1431.902\nsamples = 56\nvalue = 186.75"] ;
8 -> 20 ;
21 [label="friedman_mse = 14.222\nsamples = 3\nvalue = 152.667"] ;
20 -> 21 ;
22 [label="X[2] <= 35714288812032.0\nfriedman_mse = 1442.671\nsamples = 53\nvalue = 188.679"] ;
20 -> 22 ;
23 [label="X[3] <= 375688003584.0\nfriedman_mse = 1355.959\nsamples = 51\nvalue = 187.373"] ;
22 -> 23 ;
24 [label="friedman_mse = 55.551\nsamples = 7\nvalue = 166.857"] ;
23 -> 24 ;
25 [label="friedman_mse = 1485.231\nsamples = 44\nvalue = 190.636"] ;
23 -> 25 ;
26 [label="friedman_mse = 2500.0\nsamples = 2\nvalue = 222.0"] ;
22 -> 26 ;
27 [label="X[1] <= 0.224\nfriedman_mse = 3813.579\nsamples = 30\nvalue = 222.433"] ;
7 -> 27 ;
28 [label="friedman_mse = 2503.639\nsamples = 12\nvalue = 210.167"] ;
27 -> 28 ;
29 [label="friedman_mse = 4519.682\nsamples = 18\nvalue = 230.611"] ;
27 -> 29 ;
30 [label="friedman_mse = 864.854\nsamples = 12\nvalue = 109.25"] ;
0 -> 30 [labeldistance=2.5, labelangle=-45, headlabel="False"] ;
}